<?xml version="1.0"?>
<opencv_storage>
<stage6>
  <maxWeakCount>6</maxWeakCount>
  <stageThreshold>-2.6744145154953003e-01</stageThreshold>
  <weakClassifiers>
    <_>
      <internalNodes>
        0 -1 155422 2.9680680483579636e-02</internalNodes>
      <leafValues>
        -6.8783067166805267e-02 8.6026203632354736e-01</leafValues></_>
    <_>
      <internalNodes>
        0 -1 131634 8.4710598457604647e-04</internalNodes>
      <leafValues>
        5.6176578998565674e-01 -7.7909809350967407e-01</leafValues></_>
    <_>
      <internalNodes>
        0 -1 141399 1.7107226885855198e-03</internalNodes>
      <leafValues>
        -4.5669698715209961e-01 7.3632758855819702e-01</leafValues></_>
    <_>
      <internalNodes>
        0 -1 122003 1.6153925098478794e-03</internalNodes>
      <leafValues>
        -4.9158427119255066e-01 6.8066805601119995e-01</leafValues></_>
    <_>
      <internalNodes>
        0 -1 9562 -1.9586859270930290e-03</internalNodes>
      <leafValues>
        6.7691135406494141e-01 -4.9399372935295105e-01</leafValues></_>
    <_>
      <internalNodes>
        0 -1 32564 -8.8905123993754387e-04</internalNodes>
      <leafValues>
        8.2969015836715698e-01 -3.9068657159805298e-01</leafValues></_></weakClassifiers></stage6>
</opencv_storage>
