<?xml version="1.0"?>
<opencv_storage>
<stage3>
  <maxWeakCount>5</maxWeakCount>
  <stageThreshold>2.0549204945564270e-01</stageThreshold>
  <weakClassifiers>
    <_>
      <internalNodes>
        0 -1 148026 1.5280034858733416e-05</internalNodes>
      <leafValues>
        -3.3333334326744080e-01 9.0070921182632446e-01</leafValues></_>
    <_>
      <internalNodes>
        0 -1 152132 2.8493501245975494e-02</internalNodes>
      <leafValues>
        -4.1202476620674133e-01 8.7360423803329468e-01</leafValues></_>
    <_>
      <internalNodes>
        0 -1 138469 -2.3961601254995912e-04</internalNodes>
      <leafValues>
        7.2457855939865112e-01 -5.6518751382827759e-01</leafValues></_>
    <_>
      <internalNodes>
        0 -1 155879 4.7727152705192566e-03</internalNodes>
      <leafValues>
        -4.1708096861839294e-01 8.0517297983169556e-01</leafValues></_>
    <_>
      <internalNodes>
        0 -1 141447 -1.4238641597330570e-04</internalNodes>
      <leafValues>
        7.1086472272872925e-01 -4.6907553076744080e-01</leafValues></_></weakClassifiers></stage3>
</opencv_storage>
