<?xml version="1.0"?>
<opencv_storage>
<stage19>
  <maxWeakCount>5</maxWeakCount>
  <stageThreshold>2.3316688835620880e-02</stageThreshold>
  <weakClassifiers>
    <_>
      <internalNodes>
        0 -1 125871 -9.6837654709815979e-03</internalNodes>
      <leafValues>
        -5.4000002145767212e-01 8.1443297863006592e-01</leafValues></_>
    <_>
      <internalNodes>
        0 -1 148486 2.0685987547039986e-02</internalNodes>
      <leafValues>
        -4.9078166484832764e-01 6.4376610517501831e-01</leafValues></_>
    <_>
      <internalNodes>
        0 -1 59740 1.8922779418062419e-05</internalNodes>
      <leafValues>
        -4.3903687596321106e-01 7.0600217580795288e-01</leafValues></_>
    <_>
      <internalNodes>
        0 -1 139786 -7.7732198406010866e-04</internalNodes>
      <leafValues>
        8.7751573324203491e-01 -3.2502904534339905e-01</leafValues></_>
    <_>
      <internalNodes>
        0 -1 69558 -1.7277727238251828e-05</internalNodes>
      <leafValues>
        6.8361651897430420e-01 -4.5152842998504639e-01</leafValues></_></weakClassifiers></stage19>
</opencv_storage>
