<?xml version="1.0"?>
<opencv_storage>
<stage16>
  <maxWeakCount>7</maxWeakCount>
  <stageThreshold>-1.0091396421194077e-01</stageThreshold>
  <weakClassifiers>
    <_>
      <internalNodes>
        0 -1 101564 -1.7026588320732117e-02</internalNodes>
      <leafValues>
        -1. 7.5816202163696289e-01</leafValues></_>
    <_>
      <internalNodes>
        0 -1 123534 3.0174283310770988e-03</internalNodes>
      <leafValues>
        5.0108247995376587e-01 -7.7708512544631958e-01</leafValues></_>
    <_>
      <internalNodes>
        0 -1 118894 2.6833345182240009e-03</internalNodes>
      <leafValues>
        3.4816288948059082e-01 -7.5341963768005371e-01</leafValues></_>
    <_>
      <internalNodes>
        0 -1 12263 1.8647518008947372e-03</internalNodes>
      <leafValues>
        -3.4192359447479248e-01 7.9831755161285400e-01</leafValues></_>
    <_>
      <internalNodes>
        0 -1 37414 -1.3890992850065231e-02</internalNodes>
      <leafValues>
        7.2614258527755737e-01 -3.2408413290977478e-01</leafValues></_>
    <_>
      <internalNodes>
        0 -1 157203 2.3547135060653090e-04</internalNodes>
      <leafValues>
        -3.4796571731567383e-01 6.1920726299285889e-01</leafValues></_>
    <_>
      <internalNodes>
        0 -1 121518 7.6621379703283310e-03</internalNodes>
      <leafValues>
        -3.3199742436408997e-01 6.6046768426895142e-01</leafValues></_></weakClassifiers></stage16>
</opencv_storage>
