<?xml version="1.0"?>
<opencv_storage>
<stage5>
  <maxWeakCount>5</maxWeakCount>
  <stageThreshold>-1.5079106390476227e-01</stageThreshold>
  <weakClassifiers>
    <_>
      <internalNodes>
        0 -1 88096 4.1918558999896049e-03</internalNodes>
      <leafValues>
        7.9156327247619629e-01 -8.5714286565780640e-01</leafValues></_>
    <_>
      <internalNodes>
        0 -1 70130 3.3141777385026217e-03</internalNodes>
      <leafValues>
        -5.1540464162826538e-01 7.0715951919555664e-01</leafValues></_>
    <_>
      <internalNodes>
        0 -1 133855 4.1138799861073494e-03</internalNodes>
      <leafValues>
        -4.4986739754676819e-01 8.1094241142272949e-01</leafValues></_>
    <_>
      <internalNodes>
        0 -1 11878 -3.4025505185127258e-02</internalNodes>
      <leafValues>
        7.2466176748275757e-01 -4.1212674975395203e-01</leafValues></_>
    <_>
      <internalNodes>
        0 -1 148308 1.4899682719260454e-03</internalNodes>
      <leafValues>
        -2.7560210227966309e-01 7.9405134916305542e-01</leafValues></_></weakClassifiers></stage5>
</opencv_storage>
